<?xml version="1.0"?>
<opencv_storage>
<cascade>
  <stageType>BOOST</stageType>
  <featureType>HAAR</featureType>
  <height>24</height>
  <width>24</width>
  <stageParams>
    <boostType>GAB</boostType>
    <minHitRate>9.9500000476837158e-01</minHitRate>
    <maxFalseAlarm>5.0000000000000000e-01</maxFalseAlarm>
    <weightTrimRate>9.4999998807907104e-01</weightTrimRate>
    <maxDepth>1</maxDepth>
    <maxWeakCount>100</maxWeakCount></stageParams>
  <featureParams>
    <maxCatCount>0</maxCatCount>
    <featSize>1</featSize>
    <mode>BASIC</mode></featureParams>
  <stageNum>13</stageNum>
  <stages>
    <!-- stage 0 -->
    <_>
      <maxWeakCount>2</maxWeakCount>
      <stageThreshold>-3.3913096785545349e-01</stageThreshold>
      <weakClassifiers>
        <_>
          <internalNodes>
            0 -1 20 -5.9438981115818024e-02</internalNodes>
          <leafValues>
            7.7551019191741943e-01 -9.6758103370666504e-01</leafValues></_>
        <_>
          <internalNodes>
            0 -1 28 -3.8817502558231354e-02</internalNodes>
          <leafValues>
            6.2845009565353394e-01 -9.6188604831695557e-01</leafValues></_></weakClassifiers></_>
    <!-- stage 1 -->
    <_>
      <maxWeakCount>3</maxWeakCount>
      <stageThreshold>-1.3649559020996094e+00</stageThreshold>
      <weakClassifiers>
        <_>
          <internalNodes>
            0 -1 4 2.7533832192420959e-01</internalNodes>
          <leafValues>
            -9.1084337234497070e-01 8.0000001192092896e-01</leafValues></_>
        <_>
          <internalNodes>
            0 -1 18 -2.4623591452836990e-02</internalNodes>
          <leafValues>
            3.4159871935844421e-01 -9.0972715616226196e-01</leafValues></_>
        <_>
          <internalNodes>
            0 -1 12 -7.6349385082721710e-02</internalNodes>
          <leafValues>
            4.5561465620994568e-01 -1.</leafValues></_></weakClassifiers></_>
    <!-- stage 2 -->
    <_>
      <maxWeakCount>3</maxWeakCount>
      <stageThreshold>-1.4474000930786133e+00</stageThreshold>
      <weakClassifiers>
        <_>
          <internalNodes>
            0 -1 33 2.2545952349901199e-02</internalNodes>
          <leafValues>
            -8.9749699831008911e-01 8.6885243654251099e-01</leafValues></_>
        <_>
          <internalNodes>
            0 -1 35 -3.1100423075258732e-03</internalNodes>
          <leafValues>
            -9.7500431537628174e-01 5.1082366704940796e-01</leafValues></_>
        <_>
          <internalNodes>
            0 -1 13 -7.5081796385347843e-03</internalNodes>
          <leafValues>
            4.2510119080543518e-01 -9.4582790136337280e-01</leafValues></_></weakClassifiers></_>
    <!-- stage 3 -->
    <_>
      <maxWeakCount>4</maxWeakCount>
      <stageThreshold>-1.7074939012527466e+00</stageThreshold>
      <weakClassifiers>
        <_>
          <internalNodes>
            0 -1 34 1.3839935883879662e-02</internalNodes>
          <leafValues>
            -9.0144228935241699e-01 7.3529410362243652e-01</leafValues></_>
        <_>
          <internalNodes>
            0 -1 21 2.7675073593854904e-02</internalNodes>
          <leafValues>
            -7.4455332756042480e-01 7.3937416076660156e-01</leafValues></_>
        <_>
          <internalNodes>
            0 -1 29 -3.4453012049198151e-02</internalNodes>
          <leafValues>
            7.1568626165390015e-01 -7.0005315542221069e-01</leafValues></_>
        <_>
          <internalNodes>
            0 -1 23 2.7419101446866989e-02</internalNodes>
          <leafValues>
            -7.5122916698455811e-01 6.3855493068695068e-01</leafValues></_></weakClassifiers></_>
    <!-- stage 4 -->
    <_>
      <maxWeakCount>2</maxWeakCount>
      <stageThreshold>-6.3186335563659668e-01</stageThreshold>
      <weakClassifiers>
        <_>
          <internalNodes>
            0 -1 9 1.6379910707473755e-01</internalNodes>
          <leafValues>
            -8.9260143041610718e-01 7.7419352531433105e-01</leafValues></_>
        <_>
          <internalNodes>
            0 -1 19 -3.4944000653922558e-03</internalNodes>
          <leafValues>
            2.6073810458183289e-01 -1.</leafValues></_></weakClassifiers></_>
    <!-- stage 5 -->
    <_>
      <maxWeakCount>4</maxWeakCount>
      <stageThreshold>-2.0839338302612305e+00</stageThreshold>
      <weakClassifiers>
        <_>
          <internalNodes>
            0 -1 14 -6.8320110440254211e-02</internalNodes>
          <leafValues>
            7.1929824352264404e-01 -8.7900358438491821e-01</leafValues></_>
        <_>
          <internalNodes>
            0 -1 6 2.3466205596923828e-01</internalNodes>
          <leafValues>
            -8.5018730163574219e-01 3.2208698987960815e-01</leafValues></_>
        <_>
          <internalNodes>
            0 -1 27 1.4719194950885139e-05</internalNodes>
          <leafValues>
            -7.2572529315948486e-01 4.8128738999366760e-01</leafValues></_>
        <_>
          <internalNodes>
            0 -1 25 7.9344645142555237e-02</internalNodes>
          <leafValues>
            -1. 3.7098234891891479e-01</leafValues></_></weakClassifiers></_>
    <!-- stage 6 -->
    <_>
      <maxWeakCount>4</maxWeakCount>
      <stageThreshold>-1.9410809278488159e+00</stageThreshold>
      <weakClassifiers>
        <_>
          <internalNodes>
            0 -1 5 2.2382515668869019e-01</internalNodes>
          <leafValues>
            -8.8151657581329346e-01 7.8571426868438721e-01</leafValues></_>
        <_>
          <internalNodes>
            0 -1 36 -1.4672254110337235e-05</internalNodes>
          <leafValues>
            4.7719117999076843e-01 -8.2535207271575928e-01</leafValues></_>
        <_>
          <internalNodes>
            0 -1 6 2.4168318510055542e-01</internalNodes>
          <leafValues>
            -7.4030619859695435e-01 5.5678230524063110e-01</leafValues></_>
        <_>
          <internalNodes>
            0 -1 11 -1.4583302800019737e-05</internalNodes>
          <leafValues>
            5.0609397888183594e-01 -8.6904072761535645e-01</leafValues></_></weakClassifiers></_>
    <!-- stage 7 -->
    <_>
      <maxWeakCount>3</maxWeakCount>
      <stageThreshold>-1.6004490852355957e+00</stageThreshold>
      <weakClassifiers>
        <_>
          <internalNodes>
            0 -1 11 -6.1852717772126198e-04</internalNodes>
          <leafValues>
            -9.6778523921966553e-01 1.3548387587070465e-01</leafValues></_>
        <_>
          <internalNodes>
            0 -1 32 -2.1602224558591843e-02</internalNodes>
          <leafValues>
            7.1209305524826050e-01 -7.7855664491653442e-01</leafValues></_>
        <_>
          <internalNodes>
            0 -1 37 -1.1194242397323251e-03</internalNodes>
          <leafValues>
            -9.5737636089324951e-01 3.9082777500152588e-01</leafValues></_></weakClassifiers></_>
    <!-- stage 8 -->
    <_>
      <maxWeakCount>4</maxWeakCount>
      <stageThreshold>-1.8731952905654907e+00</stageThreshold>
      <weakClassifiers>
        <_>
          <internalNodes>
            0 -1 31 8.3161979913711548e-02</internalNodes>
          <leafValues>
            -8.6997634172439575e-01 6.6666668653488159e-01</leafValues></_>
        <_>
          <internalNodes>
            0 -1 24 -1.4696838661620859e-05</internalNodes>
          <leafValues>
            3.9619624614715576e-01 -7.9642403125762939e-01</leafValues></_>
        <_>
          <internalNodes>
            0 -1 11 -1.3206332223489881e-03</internalNodes>
          <leafValues>
            -8.2447975873947144e-01 4.7218871116638184e-01</leafValues></_>
        <_>
          <internalNodes>
            0 -1 10 -1.4425388144445606e-05</internalNodes>
          <leafValues>
            6.4130473136901855e-01 -6.7898362874984741e-01</leafValues></_></weakClassifiers></_>
    <!-- stage 9 -->
    <_>
      <maxWeakCount>3</maxWeakCount>
      <stageThreshold>-1.3227555751800537e+00</stageThreshold>
      <weakClassifiers>
        <_>
          <internalNodes>
            0 -1 15 -2.6543010026216507e-02</internalNodes>
          <leafValues>
            5.0000000000000000e-01 -8.6255925893783569e-01</leafValues></_>
        <_>
          <internalNodes>
            0 -1 24 -1.4696838661620859e-05</internalNodes>
          <leafValues>
            3.7322503328323364e-01 -7.3620688915252686e-01</leafValues></_>
        <_>
          <internalNodes>
            0 -1 7 -1.3751233927905560e-03</internalNodes>
          <leafValues>
            -1. 2.7601054310798645e-01</leafValues></_></weakClassifiers></_>
    <!-- stage 10 -->
    <_>
      <maxWeakCount>3</maxWeakCount>
      <stageThreshold>-1.2208175659179688e+00</stageThreshold>
      <weakClassifiers>
        <_>
          <internalNodes>
            0 -1 17 9.6316620707511902e-02</internalNodes>
          <leafValues>
            -8.8135594129562378e-01 3.7837839126586914e-01</leafValues></_>
        <_>
          <internalNodes>
            0 -1 26 -1.4612011909775902e-05</internalNodes>
          <leafValues>
            5.9199637174606323e-01 -6.9246846437454224e-01</leafValues></_>
        <_>
          <internalNodes>
            0 -1 30 -1.4612011909775902e-05</internalNodes>
          <leafValues>
            3.7869706749916077e-01 -9.0672743320465088e-01</leafValues></_></weakClassifiers></_>
    <!-- stage 11 -->
    <_>
      <maxWeakCount>3</maxWeakCount>
      <stageThreshold>-1.4668178558349609e+00</stageThreshold>
      <weakClassifiers>
        <_>
          <internalNodes>
            0 -1 16 2.7495885267853737e-02</internalNodes>
          <leafValues>
            -8.8508558273315430e-01 2.9268291592597961e-01</leafValues></_>
        <_>
          <internalNodes>
            0 -1 30 -8.1011396832764149e-04</internalNodes>
          <leafValues>
            -7.9470479488372803e-01 2.9546082019805908e-01</leafValues></_>
        <_>
          <internalNodes>
            0 -1 3 2.4094164837151766e-03</internalNodes>
          <leafValues>
            2.1297252178192139e-01 -1.</leafValues></_></weakClassifiers></_>
    <!-- stage 12 -->
    <_>
      <maxWeakCount>5</maxWeakCount>
      <stageThreshold>-1.5214622020721436e+00</stageThreshold>
      <weakClassifiers>
        <_>
          <internalNodes>
            0 -1 22 6.0229420661926270e-02</internalNodes>
          <leafValues>
            -8.9343243837356567e-01 2.2580644488334656e-01</leafValues></_>
        <_>
          <internalNodes>
            0 -1 8 -1.4374613783729728e-05</internalNodes>
          <leafValues>
            2.5439664721488953e-01 -8.2392805814743042e-01</leafValues></_>
        <_>
          <internalNodes>
            0 -1 0 4.7345466911792755e-02</internalNodes>
          <leafValues>
            -6.3010996580123901e-01 5.4056698083877563e-01</leafValues></_>
        <_>
          <internalNodes>
            0 -1 1 -6.8257182836532593e-02</internalNodes>
          <leafValues>
            3.5566374659538269e-01 -1.</leafValues></_>
        <_>
          <internalNodes>
            0 -1 2 -7.6249511912465096e-03</internalNodes>
          <leafValues>
            6.3426703214645386e-01 -6.0798019170761108e-01</leafValues></_></weakClassifiers></_></stages>
  <features>
    <_>
      <rects>
        <_>
          0 4 24 2 -1.</_>
        <_>
          8 4 8 2 3.</_></rects>
      <tilted>0</tilted></_>
    <_>
      <rects>
        <_>
          0 9 20 12 -1.</_>
        <_>
          0 9 10 6 2.</_>
        <_>
          10 15 10 6 2.</_></rects>
      <tilted>0</tilted></_>
    <_>
      <rects>
        <_>
          0 9 15 6 -1.</_>
        <_>
          0 11 15 2 3.</_></rects>
      <tilted>0</tilted></_>
    <_>
      <rects>
        <_>
          0 15 7 6 -1.</_>
        <_>
          0 17 7 2 3.</_></rects>
      <tilted>0</tilted></_>
    <_>
      <rects>
        <_>
          1 6 15 16 -1.</_>
        <_>
          6 6 5 16 3.</_></rects>
      <tilted>0</tilted></_>
    <_>
      <rects>
        <_>
          1 8 12 13 -1.</_>
        <_>
          5 8 4 13 3.</_></rects>
      <tilted>0</tilted></_>
    <_>
      <rects>
        <_>
          2 3 21 14 -1.</_>
        <_>
          9 3 7 14 3.</_></rects>
      <tilted>0</tilted></_>
    <_>
      <rects>
        <_>
          2 9 4 6 -1.</_>
        <_>
          2 11 4 2 3.</_></rects>
      <tilted>0</tilted></_>
    <_>
      <rects>
        <_>
          2 11 2 2 -1.</_>
        <_>
          2 12 2 1 2.</_></rects>
      <tilted>0</tilted></_>
    <_>
      <rects>
        <_>
          3 4 9 18 -1.</_>
        <_>
          6 4 3 18 3.</_></rects>
      <tilted>0</tilted></_>
    <_>
      <rects>
        <_>
          3 10 1 2 -1.</_>
        <_>
          3 11 1 1 2.</_></rects>
      <tilted>0</tilted></_>
    <_>
      <rects>
        <_>
          3 10 1 8 -1.</_>
        <_>
          3 14 1 4 2.</_></rects>
      <tilted>0</tilted></_>
    <_>
      <rects>
        <_>
          4 14 18 7 -1.</_>
        <_>
          13 14 9 7 2.</_></rects>
      <tilted>0</tilted></_>
    <_>
      <rects>
        <_>
          5 8 10 6 -1.</_>
        <_>
          5 10 10 2 3.</_></rects>
      <tilted>0</tilted></_>
    <_>
      <rects>
        <_>
          6 9 12 3 -1.</_>
        <_>
          10 9 4 3 3.</_></rects>
      <tilted>0</tilted></_>
    <_>
      <rects>
        <_>
          6 11 12 1 -1.</_>
        <_>
          10 11 4 1 3.</_></rects>
      <tilted>0</tilted></_>
    <_>
      <rects>
        <_>
          6 18 6 5 -1.</_>
        <_>
          8 18 2 5 3.</_></rects>
      <tilted>0</tilted></_>
    <_>
      <rects>
        <_>
          7 1 10 9 -1.</_>
        <_>
          7 4 10 3 3.</_></rects>
      <tilted>0</tilted></_>
    <_>
      <rects>
        <_>
          7 6 8 9 -1.</_>
        <_>
          7 9 8 3 3.</_></rects>
      <tilted>0</tilted></_>
    <_>
      <rects>
        <_>
          8 7 14 6 -1.</_>
        <_>
          8 9 14 2 3.</_></rects>
      <tilted>0</tilted></_>
    <_>
      <rects>
        <_>
          8 13 16 3 -1.</_>
        <_>
          16 13 8 3 2.</_></rects>
      <tilted>0</tilted></_>
    <_>
      <rects>
        <_>
          9 8 6 5 -1.</_>
        <_>
          12 8 3 5 2.</_></rects>
      <tilted>0</tilted></_>
    <_>
      <rects>
        <_>
          9 11 8 6 -1.</_>
        <_>
          9 13 8 2 3.</_></rects>
      <tilted>0</tilted></_>
    <_>
      <rects>
        <_>
          10 0 11 8 -1.</_>
        <_>
          10 4 11 4 2.</_></rects>
      <tilted>0</tilted></_>
    <_>
      <rects>
        <_>
          10 10 2 2 -1.</_>
        <_>
          10 10 1 1 2.</_>
        <_>
          11 11 1 1 2.</_></rects>
      <tilted>0</tilted></_>
    <_>
      <rects>
        <_>
          11 3 13 18 -1.</_>
        <_>
          11 9 13 6 3.</_></rects>
      <tilted>0</tilted></_>
    <_>
      <rects>
        <_>
          11 10 1 2 -1.</_>
        <_>
          11 11 1 1 2.</_></rects>
      <tilted>0</tilted></_>
    <_>
      <rects>
        <_>
          11 10 4 2 -1.</_>
        <_>
          11 10 2 1 2.</_>
        <_>
          13 11 2 1 2.</_></rects>
      <tilted>0</tilted></_>
    <_>
      <rects>
        <_>
          11 12 4 8 -1.</_>
        <_>
          11 16 4 4 2.</_></rects>
      <tilted>0</tilted></_>
    <_>
      <rects>
        <_>
          11 13 4 6 -1.</_>
        <_>
          11 16 4 3 2.</_></rects>
      <tilted>0</tilted></_>
    <_>
      <rects>
        <_>
          11 18 2 4 -1.</_>
        <_>
          11 20 2 2 2.</_></rects>
      <tilted>0</tilted></_>
    <_>
      <rects>
        <_>
          12 8 12 4 -1.</_>
        <_>
          16 8 4 4 3.</_></rects>
      <tilted>0</tilted></_>
    <_>
      <rects>
        <_>
          13 4 1 12 -1.</_>
        <_>
          13 8 1 4 3.</_></rects>
      <tilted>0</tilted></_>
    <_>
      <rects>
        <_>
          13 9 6 3 -1.</_>
        <_>
          16 9 3 3 2.</_></rects>
      <tilted>0</tilted></_>
    <_>
      <rects>
        <_>
          13 10 6 2 -1.</_>
        <_>
          16 10 3 2 2.</_></rects>
      <tilted>0</tilted></_>
    <_>
      <rects>
        <_>
          18 1 3 14 -1.</_>
        <_>
          18 8 3 7 2.</_></rects>
      <tilted>0</tilted></_>
    <_>
      <rects>
        <_>
          21 10 1 2 -1.</_>
        <_>
          21 11 1 1 2.</_></rects>
      <tilted>0</tilted></_>
    <_>
      <rects>
        <_>
          21 13 1 6 -1.</_>
        <_>
          21 16 1 3 2.</_></rects>
      <tilted>0</tilted></_></features></cascade>
</opencv_storage>
